2,10
0.072073,0.046581,0.132834,0.041921,-0.001900,0.053981,0.138071,-0.113734,0.132454,0.298575,-0.040380,-0.158358,0.181100,-0.153335,0.179766,-0.164642,0.449408,0.078912,-0.095803,-0.023434,0.115110,0.235170,-0.212524,-0.078865,-0.045195,0.559397,-0.252843,0.040206,-0.056047,-0.727333,-0.034197,-0.466398,-0.214253,-0.171949,0.226081,-0.240856,0.085556,0.447587,-0.127944,-0.397148,-0.081791,-0.062735,0.043354,0.008682,0.041522,-0.005023,0.111387,-0.008964,0.295136,0.202177,-0.050110,-0.208516,0.240345,0.234218,0.324798,-0.200962,0.068430,-0.115677,0.028133,0.351458,0.059318,0.180850,-0.190455,0.229783,0.093089,-0.010185,-0.049369,-0.335240,0.407895,0.208967,0.081292,0.218956,-0.200881,0.109765,0.344141,-0.108914,-0.005814,-0.079801,-0.279388,-0.262740,-0.018462,0.301156,-0.277098,-0.077666,-0.089427,0.041019,-0.127617,-0.325480,0.205660,-0.213748,0.284833,0.238199,-0.112361,-0.153728,0.095016,-0.082393,-0.078505,-0.054421,0.290675,0.018003,-0.108432,0.059318,0.063284,-0.101904,0.020222,0.002724,-0.257523,-0.012740,-0.212965,-0.266799,0.181578,0.343392,-0.414945,0.088047,0.258464,0.117461,0.178695,-0.356733,-0.152560,0.078874,0.133016,0.086776,-0.193366,0.000276,-0.009774,-0.007931,-0.113439,-0.080546,-0.004785,0.034605,0.036339,-0.109959,0.179769,0.135529,0.278973,-0.246788,-0.200581,0.031903,-0.430025,-0.072908,0.443827,0.173831,0.094059,0.023057,0.253052,0.268559,0.320963,-0.018189,-0.267601,0.303902,0.000049,0.006232,-0.249168,0.040207,0.069862,-0.135267,-0.265084,-0.098942,0.160191,0.065889,0.323792,0.079271,-0.140593,-0.242363,0.166042,0.069791,-0.280814,-0.035585,-0.521436,-0.153787,0.035146,-0.070866,0.301391,0.263974,-0.117224,-0.086438,0.175276,-0.006272,0.328957,0.064327,-0.023863,0.116698,0.344186,-0.182187,0.086576,0.176343,0.084806,-0.175716,-0.389166,-0.076739,-0.016402,-0.025957,-0.075612,0.016304,-0.123128,0.105895,0.013890,-0.000201,0.189234,0.076986,0.284696,-0.055815,-0.324197,-0.141827,0.092403,0.041593,0.047146,0.334987,-0.298021,0.008304,0.296061,-0.141863,-0.375630,-0.295771,-0.019619,-0.327571,0.011256,0.146660,0.369157,0.216990,-0.413215,-0.266620,0.050235,0.418039,-0.035950,-0.283965,-0.078093,-0.175553,0.363854,-0.050760,0.095884,0.290585,-0.522915,0.151692,0.069822,0.161406,0.047864,0.127040,0.282934,0.366369,-0.156198,0.322260,-0.009358,-0.488224,-0.056267,0.048699,0.197818,-0.192319,-0.104807,0.173771,0.182510,-0.001209,0.397615,-0.111349,-0.109151,-0.115588,-0.067000,0.067111,0.149155,0.072842,-0.154113,-0.582038,0.655472,0.414855,0.099342,-0.049578,-0.119214,0.229298,-0.006891,-0.257835,0.055271,-0.067901,-0.289293,-0.217850,-0.029232,0.022484,-0.065666,0.168862,-0.002540,0.096991,0.039234,0.000742,0.042401,-0.118455,-0.067619,-0.135932,-0.022320,-0.043099,0.122915,0.284841,0.213123,-0.043792,-0.704824,0.038432,0.006681,-0.033513,0.003263,0.177146,0.230926,-0.021377,0.004388,0.340967,-0.012598,0.093739,-0.158212,0.188626,-0.157856,-0.259449,0.178585,0.020913,-0.478231,0.231594,0.360244,0.110045,0.010383,0.089490,0.256852,-0.337223,-0.250297,-0.029703,0.483723,0.067371,0.216668,0.041574,-0.260958,0.683271,0.175057,0.462543,-0.207309,-0.184694,-0.305062,0.077588,0.498031,-0.374973,-0.418262,0.030509,0.050260,0.023267,0.081732,-0.333362,0.292542,0.019936,0.080001,0.163720,-0.244000,0.266425,0.109362,-0.101423,0.120104,0.240837,0.030327,-0.024984,0.015621,0.189118,-0.086751,0.276119,0.253082,0.234890,0.265063,0.190686,0.120173,-0.054523,0.135556,-0.275445,-0.017715,-0.097005,-0.014068,-0.111634,-0.070969,0.101224,0.061001,-0.012617,0.061154,0.069123,-0.072345,0.032399,-0.013608,-0.071122,0.109111,0.219123,0.031499,-0.035979,-0.497167,-0.232013,0.271051,-0.357295,-0.114188,-0.008346,0.012995,0.106637,0.033095,-0.347533,0.142592,0.205077,0.019644,0.037011,0.167261,0.158769,0.172538,0.058471,-0.201602,-0.149326,-0.088536,0.228225,-0.035042,0.071980,0.061660,0.136521,-0.045158,0.015044,-0.011539,-0.074609,0.305738,0.027957,0.078387,0.038212,0.151857,0.234352,-0.053491,-0.387446,0.177677,0.170905,-0.174550,0.182551,-0.075560,0.170553,-0.100242,-0.335281,0.189890,-0.002865,-0.022954,0.004591,-0.154766,-0.270473,0.074680,0.098804,0.238130,0.000136,-0.421465,-0.057044,-0.041244,-0.236244,0.192181,0.190237,-0.020870,-0.228374,0.340493,-0.220866,0.366676,0.472606,0.000611,0.102161,-0.182383,0.113936,-0.084282,-0.126290,-0.266549,-0.260614,0.252115,0.118874,0.094825,-0.007970,0.061132,0.090380,-0.060552,0.016029,-0.038740,-0.072174,0.103791,0.161474,-0.172060,0.046000,-0.076643,0.315002,0.057226,0.100674,0.044835,-0.250754,0.446364,0.137113,-0.266170,-0.428849,0.271124,0.426264,0.104256,-0.088934,0.247902,0.266402,0.286598,0.187844,-0.011985,0.174336,-0.053987,-0.046811,-0.168099,0.080613,-0.139291,-0.018048,-0.221205,-0.060576,-0.477108,-0.383677,0.143630,-0.229017,0.158294,-0.256332,0.171285,0.038907,-0.049145,-0.040687,-0.233459,0.113493,0.332817,-0.059967,0.011371,0.057771,-0.172244,-0.189313,-0.341031,-0.253408,-0.116430,-0.139354,-0.072196,0.270279,0.111153,-0.133190,-0.035498,0.275067,0.236049,0.132100,0.072238,0.749477,-0.548815,-0.329901,-0.227208,-0.021746,0.140140,-0.302221,0.075733,0.117724,0.150236,-0.009275,0.156941,-0.036951,-0.067578,0.042086,-0.026229,-0.116319,-0.090807,-0.019095,0.021414,0.034746,-0.010049,0.285042,-0.089173,0.229450,0.018216,0.034065,0.168217,-0.020075,-0.165409,-0.220780,0.280023,0.230385,0.280199,-0.204553,0.160766,-0.252450,0.070768,0.299032,-0.232686,0.280258,0.415062,-0.298403,0.096176,-0.128159,-0.037209,-0.005617,-0.340296,-0.249698,0.222479,-0.270752,-0.235849,0.067896,-0.029564,0.123238,-0.084376,0.469481,-0.295646,-0.208742,-0.143366,0.034955,0.116974,0.029044,-0.033407,0.005012,0.142799,-0.044556,0.321294,0.156629,-0.008964,-0.199146,0.060515,0.509751,-0.431409,-0.123979,-0.110697,0.080337,0.348804,-0.067535,0.109506,-0.029164,-0.065065,0.052940,0.043083,0.009367,0.203808,0.010680,0.133246,0.241671,-0.035222,0.075030,0.150371,0.040846,-0.026160,-0.277118,-0.031628,-0.056585,-0.134665,-0.033884,0.146395,-0.024029,-0.244774,0.064741,-0.000886,0.159800,-0.051645,0.172857,-0.061973,-0.009333,-0.094183,0.111531,0.121860,0.213050,0.045158,0.166460,-0.273237,-0.034324,-0.246383,-0.379302,0.139987,-0.115464,0.155623,-0.030033,-0.063475,0.122021,0.133626,0.028574,0.331269,0.121232,-0.046824,0.168996,0.118777,-0.359476,0.064786,0.037003,-0.022522,-0.047105,-0.200633,-0.118041,-0.329918,-0.075317,-0.145550,0.166296,-0.095549,-0.176453,-0.036480,-0.045886,-0.116381,-0.044451,-0.156196,0.286220,-0.365070,0.081203,0.048482,-0.047672,-0.154333,-0.014097,0.105095,-0.222379,0.009078,-0.314238,0.335299,-0.099576,-0.043309,0.025683,0.147148,-0.033067,0.003725,0.296573,0.105079,-0.079682,-0.004722,0.018356,-0.273662,-0.083312,-0.022079,-0.029915,0.092477,-0.110796,-0.107917,-0.114362,-0.070588,0.187749,0.154428,-0.248477,-0.018116,0.397467,-0.024297,0.224865,0.129138,0.095909,0.135512,-0.055190,0.056599,0.357973,0.077247,-0.030681,-0.351805,-0.237098,0.154512,-0.009920,0.138549,0.134233,-0.036368,-0.035847,-0.294471,0.283539,-0.094877,-0.204292,-0.147148,-0.109502,0.158374,-0.360458,0.055140,-0.030120,0.421599,-0.121224,-0.120589,-0.085417,0.061389,-0.377440,0.245443,-0.027687,-0.247458,0.488075,0.310425,0.339602,-0.237522,-0.487992,-0.140891,-0.238996,-0.270941,0.001750,0.011432,-0.058833,0.122525,0.098366,-0.379535,-0.439869,-0.043291,0.064760,-0.286151,0.149107,0.112295,-0.430548,0.013879,-0.198483,0.176990,-0.069401,-0.062936,0.213433,0.246332,0.405308,-0.175193,0.337164,0.076498,-0.221957,0.090699,-0.162177,-0.139555,0.051085,-0.470896,-0.077162,0.236375,0.033335,-0.194015,-0.037390,-0.193311,-0.093326,0.047597,0.065661,-0.312868,0.314702,-0.304438,-0.296017,0.342919,-0.346651,0.357994,0.214588,-0.054965,-0.110469,0.060348,0.079681,0.137416,-0.247971,0.215817,-0.031135,-0.071217,0.213828,
0.058933,0.107031,-0.067106,0.128078,0.116730,-0.301314,0.053047,-0.042081,-0.120225,-0.165433,0.216149,-0.423813,0.163755,-0.436984,0.302438,-0.326704,0.681912,-0.183073,0.081530,0.213615,-0.119121,0.063162,-0.254488,0.354819,-0.026815,0.152077,0.423713,0.038853,0.810317,0.270103,-0.111117,0.722553,-0.354069,-0.154918,0.094698,-0.296084,-0.358028,0.156162,-0.167691,-0.617616,0.208315,0.595659,-0.106243,0.442903,0.562616,-0.066748,0.296942,0.077534,-0.410259,-0.197831,0.268574,-0.287623,-0.355975,0.002201,0.331759,0.368862,-0.197372,0.335471,0.000542,-0.331873,-0.014613,0.467586,-0.097579,-0.194362,0.338488,-0.596188,0.193335,-0.390131,0.309155,0.108770,-0.146168,-0.284453,-0.318714,-0.053884,-0.243478,-0.584258,-0.189013,0.173846,-0.078116,-0.246844,0.040294,0.049071,0.069608,-0.703705,-0.135453,0.241103,-0.031837,-0.254762,-0.491227,0.053767,-0.060626,0.363735,0.322461,0.715414,-0.203315,-0.205121,0.586106,0.099775,-0.524883,-0.048757,-0.161732,-0.748239,0.144332,0.777644,-0.232956,-0.475933,0.171045,0.208115,-0.060018,-0.327542,
0.014218,0.330969,-0.054788,-0.035686,0.349275,-0.245129,0.095431,-0.056313,0.222208,0.003863,-0.232777,-0.461015,-0.103332,0.979047,0.228785,0.075505,0.092915,0.254509,-0.189599,-0.201635,0.290118,0.467268,0.189458,0.328669,-0.740120,0.206875,0.416174,-0.185776,-0.039924,-0.068507,-0.114163,0.299430,0.306815,-0.249086,-0.138919,-0.684928,-0.079083,-0.025575,0.534163,0.670363,-0.761002,0.007576,-0.062757,0.051990,-0.178282,0.653729,0.553042,-0.353072,-0.025786,-0.067361,-0.243935,-0.228903,-0.422326,0.117066,-0.044344,-0.129900,0.526420,-0.712710,0.212463,-0.148954,0.121816,-0.000206,0.706389,-0.006342,0.258574,0.295301,
