1,10
0.168483,0.042904,0.008670,-0.012117,0.087369,-0.045231,0.027962,0.265707,0.246293,-0.093546,0.123777,0.210682,-0.195610,-0.168103,-0.084291,0.149361,-0.119445,0.203960,-0.163274,-0.191479,-0.508621,-0.309219,0.217075,-0.331146,-0.187090,-0.392410,0.323819,0.033000,-0.295585,0.083901,0.037242,-0.054333,-0.112806,-0.273844,-0.253647,0.214050,-0.196589,-0.191760,-0.638381,0.185353,0.311891,-0.109599,0.043132,0.007763,-0.008202,-0.078458,-0.110162,0.053991,0.127894,-0.072894,0.221928,0.000405,-0.314486,-0.047608,-0.116605,0.236243,-0.192488,0.515805,0.304259,0.055680,0.195352,-0.324310,0.077701,0.197744,-0.192333,-0.094146,0.065094,0.223401,0.391500,0.011913,-0.304288,-0.105739,-0.160436,-0.133305,-0.515203,0.085747,0.069612,-0.103363,-0.071022,0.287936,-0.058301,-0.050406,0.155802,0.331759,-0.451660,-0.142088,0.115078,-0.078684,0.181341,0.174903,0.054602,-0.273985,0.144034,0.094640,-0.077427,-0.082916,0.175747,-0.028159,-0.163811,-0.025021,-0.302002,-0.115040,0.088059,0.014690,-0.165149,0.087104,0.045512,-0.089330,-0.155899,0.065655,-0.349474,-0.165224,-0.012356,0.326281,-0.034295,-0.046563,0.209304,0.439889,0.206303,0.093609,-0.012811,-0.185644,-0.052683,0.166709,0.044106,0.025705,0.061988,-0.240175,-0.065823,0.244792,-0.272700,0.082518,-0.387957,-0.030133,-0.192141,0.311526,-0.016250,0.157656,-0.145713,0.241491,0.110928,0.156800,-0.374823,0.052305,-0.027591,-0.215580,0.071143,0.398865,0.251688,-0.136116,-0.006765,-0.230824,0.152166,0.132343,0.008401,0.159112,-0.093585,-0.240782,0.194063,0.276203,-0.122169,-0.125714,-0.342604,0.278608,-0.008731,-0.221877,0.126483,0.197985,-0.265653,0.013732,0.015100,-0.223097,0.049432,-0.014358,0.121702,0.022970,-0.144445,-0.006916,0.259311,-0.076244,-0.287620,0.362989,-0.113752,0.002732,-0.089612,0.001683,0.123930,0.301498,-0.170742,0.016093,0.140518,-0.244192,0.213622,0.061750,0.360506,0.011385,-0.040791,-0.082262,0.130474,0.048409,-0.018295,-0.036546,-0.256020,0.114876,0.402053,-0.123103,0.012459,0.082294,-0.332961,-0.000086,0.590463,-0.159324,-0.068472,0.261574,0.484371,0.142504,-0.010970,-0.149252,-0.282423,0.148376,0.053240,-0.024744,0.181814,-0.292714,-0.311894,0.235173,-0.290838,-0.147624,0.253914,0.184142,0.385326,-0.079782,-0.046265,0.371810,-0.109748,-0.400745,-0.056234,-0.050316,0.416230,0.272324,0.251682,0.437800,-0.153407,0.316586,-0.015647,-0.438899,0.042552,0.069285,-0.048454,-0.164656,0.020721,-0.023050,0.010366,-0.125470,0.209573,-0.038051,-0.043381,0.064758,-0.086943,-0.187861,-0.354235,0.003729,0.082315,-0.553066,-0.051897,0.439733,-0.156120,-0.006942,0.080514,-0.086941,0.111956,-0.078864,0.003216,0.137512,0.065402,-0.047454,0.101724,-0.000174,-0.102453,0.145161,0.295213,0.037077,0.025977,0.201640,0.337337,-0.033969,-0.004166,-0.035141,-0.006241,-0.056739,0.155311,-0.415742,0.152274,0.041193,0.060342,0.032709,-0.144288,-0.116295,-0.059784,0.343848,-0.148538,-0.015712,0.176490,0.408551,0.213813,-0.158244,0.139822,0.045273,0.377087,0.063494,-0.166021,0.339445,0.218503,-0.059300,-0.383423,0.012846,0.066241,0.061077,0.086000,-0.313305,-0.011292,-0.115393,0.016973,-0.432351,0.082379,-0.779953,0.323602,0.113170,-0.104791,-0.494614,-0.051512,0.363820,0.305650,0.035289,-0.064193,-0.119414,-0.009449,-0.234340,-0.193472,-0.569228,0.106605,0.163025,0.191491,-0.003696,0.380457,-0.256713,0.061769,0.304006,0.393163,-0.155409,0.143313,0.021836,0.125101,-0.119450,0.249865,-0.217527,-0.031730,0.029621,0.304911,-0.030321,0.227542,0.187331,0.034675,0.174302,0.134018,-0.001953,0.055426,0.160902,-0.196326,-0.075780,0.111179,-0.074164,-0.074450,0.022706,0.253075,-0.027945,0.001391,0.024675,0.132566,-0.150744,0.229641,0.009206,-0.251206,0.461403,0.009879,0.024941,-0.170861,0.106850,-0.197983,0.552060,-0.032750,0.048770,-0.040995,-0.356516,0.381099,0.184364,-0.144479,-0.005916,0.394202,0.042045,-0.035221,-0.025458,0.063854,-0.042295,-0.130267,0.102547,-0.016482,-0.132580,0.073037,0.015579,-0.184408,0.033941,-0.250086,-0.340657,-0.145687,-0.113649,-0.057750,0.072902,-0.216034,-0.238559,-0.279926,-0.170191,0.219851,0.135990,0.192620,-0.051423,0.146191,-0.035421,0.399549,0.147696,0.099261,0.483636,-0.178388,0.074892,0.139808,-0.318110,0.087024,0.243197,-0.151257,0.035090,0.421377,0.247475,-0.140536,-0.086646,0.331840,-0.028475,-0.279030,0.110026,0.376372,0.098496,0.057216,-0.194844,0.223162,0.263929,-0.051140,0.040582,0.006361,0.049148,0.183455,0.164060,0.073810,-0.089319,-0.072827,0.020853,0.218909,-0.040352,-0.025796,-0.033068,0.141370,-0.154420,0.062852,-0.143462,0.170461,0.120087,-0.046422,-0.096544,-0.075835,0.130530,0.625336,0.166786,0.119403,-0.063638,-0.236898,-0.354127,-0.038845,0.440276,-0.194762,-0.177924,0.217863,-0.179034,0.010291,-0.044557,-0.092174,0.061969,-0.029299,-0.137245,0.044901,-0.299980,-0.117876,-0.127405,0.146922,0.523123,-0.077246,-0.303372,-0.196839,0.433946,-0.197822,-0.269863,-0.151661,0.128478,-0.419455,0.263068,-0.007753,0.037919,-0.221124,-0.025177,0.091705,-0.107158,-0.079706,-0.059978,0.062698,-0.339186,-0.018253,-0.084519,0.033699,0.376585,-0.070172,-0.159634,-0.027765,0.045265,0.264363,0.030284,0.146776,0.710844,0.197852,-0.202024,0.248248,-0.238611,0.009250,-0.095150,-0.039994,0.104229,0.007688,0.023571,0.015080,-0.037073,-0.018683,0.214175,-0.051615,-0.128677,-0.065031,-0.294051,0.163755,-0.098097,0.140191,-0.035147,0.070128,-0.017641,0.215446,-0.074654,0.073772,0.194110,-0.290984,-0.045171,-0.032259,0.141935,-0.250196,0.259131,0.465238,0.041218,-0.091088,0.285009,-0.117158,0.228834,-0.134009,0.126266,0.084777,-0.271590,-0.339624,-0.397243,-0.067810,-0.137857,-0.145543,-0.180246,0.148203,-0.032753,0.146041,-0.106334,-0.556275,0.190928,0.155485,0.018888,0.170599,-0.064963,0.099994,-0.050610,-0.083536,-0.030251,0.331303,-0.145582,-0.141139,-0.374827,0.438282,-0.492295,0.267528,0.318784,0.127420,-0.406294,0.280243,0.038188,0.217317,-0.127273,-0.105905,-0.027863,0.186629,-0.144562,-0.104690,0.101520,0.084506,-0.035856,-0.168934,0.020675,-0.100459,-0.041504,0.038443,0.341142,0.028353,-0.043940,-0.014248,0.031326,-0.093755,-0.153382,-0.086898,-0.003855,-0.030670,-0.081144,0.060086,0.082259,-0.001312,0.071948,-0.526352,-0.224021,0.062372,-0.147755,-0.274972,0.055118,0.169239,-0.016052,-0.030381,-0.015365,0.286981,0.003715,-0.148086,0.019343,0.375863,-0.270091,-0.201255,0.043027,0.278952,-0.360088,-0.157735,0.254439,-0.005060,0.251095,0.068801,0.119912,0.219089,-0.241260,-0.239230,-0.173271,0.024000,0.105720,-0.085799,0.145159,-0.387105,0.193428,-0.016853,-0.132241,-0.055418,0.191292,-0.109450,-0.228977,0.167385,0.177444,-0.256335,-0.114624,0.107008,-0.081349,-0.069672,0.352228,0.122787,0.271526,-0.196107,-0.052483,0.336169,0.045702,-0.210399,0.106128,0.120749,-0.207214,0.031570,-0.150509,0.200223,-0.047265,-0.209780,-0.109961,-0.036198,-0.008111,-0.183820,0.069179,0.052714,0.049033,-0.266003,-0.004244,0.218581,0.288555,-0.101055,-0.213604,0.011807,-0.007736,-0.293011,0.136624,-0.070442,-0.147591,-0.064119,-0.113312,0.125670,0.187660,-0.072091,-0.134925,-0.209974,-0.342241,-0.047571,-0.068957,-0.114968,0.053456,-0.131027,-0.157684,-0.146822,-0.104365,0.220335,0.628520,-0.135927,0.048081,0.326499,-0.191785,-0.174603,0.344649,-0.314340,-0.188676,-0.326811,0.052790,0.156859,-0.667918,0.218463,-0.211198,0.046128,0.109771,-0.205554,-0.277911,-0.110163,0.302622,-0.290581,-0.204428,0.056023,-0.122586,0.076955,-0.341533,-0.241614,0.277583,0.002631,0.177787,0.038283,0.113531,-0.262300,0.409247,-0.137510,0.044979,-0.044318,0.519618,-0.282110,-0.029134,0.423321,-0.269201,-0.054594,0.007282,0.208782,0.001899,0.464409,-0.210641,-0.275345,0.056836,0.061434,0.331467,-0.119021,0.213356,-0.009626,-0.094997,-0.130752,0.579718,0.404277,0.208160,0.348307,0.017879,0.102594,0.116301,0.023729,-0.077926,0.512327,0.242627,0.262005,0.350522,-0.232342,0.256705,-0.017438,0.205851,-0.427898,0.229265,0.132480,-0.041003,
-0.137880,0.175476,-0.183941,-0.226462,0.527792,-0.232174,-0.506301,-0.591072,-0.472032,0.314614,0.223192,0.154309,0.279663,-0.221377,-0.499145,-0.884610,-0.229467,0.197774,-0.682395,0.357001,0.335825,0.001048,0.410921,0.254074,-0.409555,-0.466359,0.519126,-0.714752,0.086772,0.029173,0.339614,-0.338291,-0.486101,0.368997,0.562434,0.014394,-0.464885,0.286145,-0.440075,0.217955,-0.824181,-0.022401,0.070542,0.162843,0.298670,-0.235436,0.501598,-0.324582,-0.080014,-0.134106,-0.378078,-0.725705,-0.158263,-0.560839,-0.718192,0.823875,-0.291747,-0.183854,0.230594,-0.233043,0.077498,-0.611898,0.679027,0.470848,-0.099159,-0.120414,
