1,15,0.010000,0.010000
-0.041569,0.067706,0.012400,0.010302,0.413888,-0.082362,-0.068952,0.013366,0.099458,0.046747,0.059013,0.063774,0.070772,0.181136,0.025526,-0.047965,-0.154345,0.121593,0.145712,0.210129,0.062018,-0.027262,-0.022587,0.201341,0.352314,0.256056,-0.028491,0.160217,0.194743,-0.084776,0.111815,-0.407871,-0.018102,-0.150062,-0.537529,-0.161551,-0.372298,-0.134772,-0.064056,-0.294796,-0.160425,-0.259311,-0.202403,0.023276,-0.274610,-0.163756,-0.093968,0.323011,0.145873,-0.435361,0.318392,-0.078126,0.069654,-0.284648,0.333894,0.051705,0.019568,-0.013938,-0.027392,0.190203,-0.048694,0.168115,-0.145030,0.125696,0.069804,0.009831,-0.113362,0.000018,-0.012480,0.138978,-0.038285,0.066142,-0.170536,0.183308,0.105194,-0.013659,0.147029,-0.191548,-0.071216,0.244478,0.102260,0.226745,-0.100677,0.315898,0.374713,-0.136643,0.077748,0.186883,-0.025413,0.057528,0.104856,0.230101,-0.398058,0.008213,0.063672,-0.182426,0.129819,-0.179948,0.159077,-0.025880,-0.208091,0.004757,-0.198626,0.080157,-0.002531,0.030279,-0.098439,-0.030626,-0.071342,-0.404170,0.167426,0.222977,-0.176984,0.284272,0.080708,-0.098072,-0.009982,0.111157,-0.181334,-0.080862,0.272087,0.138584,-0.305248,0.050959,-0.275969,-0.057002,0.102797,0.062356,0.091854,-0.150583,-0.108135,-0.013842,-0.087085,-0.035341,-0.083511,0.036798,0.072773,-0.199646,-0.028160,-0.184080,-0.060893,-0.164103,-0.226671,0.083186,0.011549,-0.026384,-0.071005,-0.090590,0.338366,-0.051615,0.055905,-0.094578,0.102789,-0.124111,-0.288978,0.053713,0.069158,-0.038387,0.147275,-0.102446,-0.105071,-0.157598,-0.119240,-0.165883,0.056151,0.116635,0.019362,-0.132477,-0.316026,0.132360,-0.188288,0.178035,-0.168759,0.425260,0.093927,0.066387,-0.094674,0.001471,-0.056623,-0.261703,0.057347,0.119016,-0.126158,-0.007976,-0.214775,0.037241,0.068545,-0.069593,-0.011027,0.044261,0.147577,0.044379,-0.036841,-0.033835,-0.030289,0.049605,-0.095640,-0.006660,-0.228455,-0.185167,0.222447,0.302650,-0.017623,0.231361,0.252838,-0.109645,-0.104788,0.350993,-0.318647,-0.037729,-0.175503,-0.074328,-0.074607,-0.068277,0.500293,0.058473,-0.062882,0.056369,0.253100,0.287742,0.156105,0.027645,0.157703,0.003141,-0.374221,0.115182,0.245226,-0.246363,-0.066193,-0.159514,0.050271,0.180845,-0.199975,-0.039559,-0.087250,-0.186791,-0.010412,-0.007193,-0.072782,0.179113,-0.139005,-0.157055,-0.048934,-0.235727,-0.109061,0.268811,0.027116,0.004429,0.019256,0.177554,0.281629,0.032507,0.030428,-0.193742,-0.326645,0.122282,0.223238,-0.010370,-0.083518,0.022777,-0.011625,0.039285,0.004031,0.096665,0.217607,-0.252075,-0.030535,-0.139374,0.249147,0.055274,0.052907,-0.181363,-0.008526,-0.077116,0.129933,-0.052277,0.083749,0.196578,0.456454,0.112589,0.122251,-0.055666,0.191763,-0.120088,-0.312976,-0.025346,0.092042,-0.129242,0.042248,0.229407,-0.057082,-0.106470,-0.121303,-0.077396,0.010272,0.042753,0.023374,-0.122008,0.148558,0.148340,-0.170358,-0.167620,0.091555,0.061943,-0.204608,0.212264,-0.065165,-0.023766,-0.199438,0.196699,0.414498,0.090871,0.031376,0.198595,-0.219862,-0.154595,0.171226,-0.133570,0.199605,-0.032997,0.247240,0.130286,-0.274431,-0.484534,-0.161142,0.688731,0.272565,0.078442,0.320778,0.414971,0.138716,0.248968,0.058273,-0.048467,-0.127979,-0.107102,0.140555,0.007097,-0.040013,0.315753,-0.455816,-0.070050,-0.059477,-0.213951,0.364901,0.123914,0.350216,-0.113036,0.162681,0.010047,-0.053690,0.077956,-0.200929,-0.332586,0.171836,0.157423,0.144749,-0.202015,0.114338,-0.120940,0.223580,-0.008316,0.005601,0.206022,-0.009143,-0.214995,0.060628,0.121452,-0.110308,0.087547,0.357965,0.095088,-0.126935,-0.210959,-0.418456,0.036597,0.101940,0.178032,-0.015055,-0.024862,-0.051068,-0.115004,-0.027795,0.217866,-0.179038,-0.010137,-0.114303,0.069697,0.254517,-0.093964,-0.131742,-0.103259,0.159703,-0.187586,0.034598,0.098308,-0.208812,0.181755,0.035266,0.124988,-0.591008,-0.160433,0.134420,-0.141847,0.173895,0.017223,0.078747,-0.049442,-0.004451,-0.232587,0.102215,-0.080566,-0.079976,-0.065216,-0.044146,0.203848,0.116488,-0.197303,0.158870,-0.027126,-0.045679,0.046127,-0.075864,0.169416,0.186265,0.073392,-0.096119,-0.084048,0.026011,0.092245,0.281018,0.155515,-0.121042,0.185447,0.040363,-0.109940,0.177500,-0.009638,-0.072823,-0.144166,0.023303,-0.054369,-0.221180,-0.335579,-0.015313,0.061786,0.107824,-0.107049,0.193395,0.180065,0.287633,0.015140,-0.400675,0.079789,0.082241,-0.018010,0.081135,0.030866,-0.074560,-0.398739,0.047086,0.004619,-0.038143,0.092449,0.016639,0.207362,0.039645,0.189073,-0.041764,0.366973,-0.363780,0.179093,0.176833,0.337545,-0.107287,-0.057053,-0.180974,0.108433,-0.533116,-0.018252,-0.300159,-0.521653,0.064415,0.048097,-0.022038,-0.142995,-0.615949,-0.164496,-0.113262,-0.199422,-0.025499,-0.226854,-0.220654,0.192140,-0.669776,0.118685,-0.117621,0.359072,0.373158,-0.036294,-0.304442,-0.154306,0.304545,-0.059966,-0.093141,0.106452,-0.094199,-0.062563,-0.128756,-0.121372,0.010895,0.077266,-0.022120,0.115291,0.431938,-0.102082,-0.125513,-0.012109,-0.050324,-0.340473,-0.030263,-0.009432,0.008412,0.270515,-0.388108,-0.034978,0.165540,0.124995,-0.115029,0.453382,-0.169530,-0.353680,-0.055006,-0.231033,0.076655,-0.180791,-0.002813,-0.070304,0.288026,-0.192169,-0.025782,0.009045,-0.045018,0.154607,0.062286,-0.001826,-0.005149,0.066412,-0.053787,0.131449,0.340697,0.067766,0.016965,-0.074169,-0.078680,-0.035637,0.010061,-0.027579,0.068226,0.196555,-0.012604,-0.113823,-0.100499,0.164021,0.084215,0.086670,0.160379,-0.129729,0.116315,-0.006729,0.141021,0.204280,-0.051665,-0.103504,-0.257406,0.342866,0.329380,0.018739,-0.099895,0.157483,0.319957,0.269172,0.067895,-0.199860,0.048076,-0.115430,-0.094877,0.181815,-0.003356,0.397237,0.198102,-0.230162,-0.090721,0.037221,-0.063951,-0.330554,-0.050221,0.076351,0.196485,0.083317,0.153329,-0.040475,0.192847,-0.014867,0.065241,0.010679,0.136330,-0.010742,-0.072366,0.042082,-0.070190,-0.013594,-0.086712,-0.101693,0.075237,-0.173217,-0.153151,0.263478,-0.020274,-0.086384,-0.010518,-0.219666,0.089375,0.224983,0.149142,-0.019245,-0.185635,0.037441,-0.042254,-0.144759,0.296629,0.050558,0.005321,-0.031887,-0.081208,-0.185318,0.059239,-0.297309,0.102706,-0.150339,-0.214642,-0.012082,-0.194842,0.166603,-0.089646,-0.115633,-0.051184,0.087115,0.129639,0.085061,0.183204,0.105693,0.181370,0.125022,-0.117440,0.273505,0.084687,0.231107,-0.030523,-0.375040,-0.071911,0.280021,-0.114726,0.112737,0.332201,-0.025823,0.091701,0.001688,0.184194,0.247721,-0.026680,0.114059,0.159613,0.118006,0.024366,0.140343,0.246379,-0.252000,-0.006497,-0.141680,-0.062610,0.124749,-0.095461,-0.000478,-0.104801,-0.171589,-0.055584,-0.231512,-0.032778,0.299829,-0.069727,-0.030496,-0.057852,0.119238,0.232830,0.009868,-0.135458,-0.104786,0.178979,0.024534,0.058041,0.012062,-0.125078,0.133729,-0.010408,0.237005,0.306587,-0.200697,-0.087867,0.252607,-0.107984,0.067809,-0.032631,0.031317,-0.185316,-0.366866,0.035819,-0.134113,-0.006198,0.094666,-0.212548,-0.067056,0.117365,0.116972,0.375960,0.171856,-0.204594,0.067864,-0.035111,0.173920,-0.275290,-0.017908,0.272377,-0.103979,0.308518,0.079880,-0.080017,0.056391,0.012362,-0.125003,-0.114092,0.019243,0.089562,-0.202155,0.239912,-0.247799,-0.038556,-0.131005,0.063337,-0.061103,-0.026007,-0.055513,0.179974,0.005752,0.099215,0.153900,-0.090904,0.285169,0.119855,0.480978,0.016296,-0.046078,0.208214,-0.163009,0.411460,0.337669,-0.172822,-0.077225,-0.079258,-0.278112,-0.124280,0.001028,0.241721,0.170859,0.108698,-0.129044,-0.157233,-0.009449,-0.234534,-0.063052,0.049670,0.136956,0.086105,0.001206,0.004197,0.158648,-0.128408,-0.080989,-0.229676,-0.019458,-0.241591,-0.040533,0.150668,0.103984,0.385645,0.303214,0.030737,-0.388311,0.206793,-0.048448,-0.306041,0.099899,-0.126681,-0.095873,-0.200002,0.695019,0.218444,-0.139100,0.046669,0.037606,-0.041777,-0.079759,-0.002241,0.067518,0.081362,-0.003517,-0.072421,0.063133,0.065427,0.067865,0.168667,-0.025772,-0.061937,-0.078290,-0.107547,-0.063980,0.010163,-0.109696,-0.047496,0.257045,-0.111339,-0.186602,-0.122930,0.154142,-0.080767,-0.111076,-0.096027,-0.119241,0.134658,0.055216,0.021567,0.100452,-0.042635,-0.148109,0.499720,0.117732,0.050208,0.095945,0.253021,0.008769,-0.191313,0.084030,0.163747,-0.092586,0.095207,0.221423,-0.041287,0.064116,0.006265,-0.193821,-0.146941,0.157815,0.364719,-0.035766,0.068945,-0.077279,0.001739,0.171579,-0.349092,0.176395,-0.292903,-0.210833,0.211680,-0.039243,-0.287569,0.257009,0.069335,-0.137576,-0.172159,0.041622,0.073972,0.020907,0.100754,0.133179,-0.084808,0.039888,0.101228,-0.002983,0.203406,0.364729,-0.064292,-0.078462,0.006505,0.019844,-0.065232,-0.045654,-0.079762,-0.133085,0.031408,0.163738,-0.022014,0.021158,0.184955,-0.039230,0.054725,0.003155,-0.539637,-0.162458,-0.331811,-0.298435,-0.572227,-0.197270,-0.135933,0.422100,0.214388,-0.031232,0.137692,-0.113619,0.125831,0.120601,-0.118168,-0.048978,-0.016060,-0.178245,0.059160,0.053406,0.064745,0.098845,0.073608,-0.148218,-0.096995,-0.155475,0.054859,-0.025368,-0.003299,-0.031386,-0.018601,-0.042699,0.122180,0.103107,0.064392,-0.044666,0.164975,-0.137486,0.394084,-0.006082,-0.039037,-0.006088,-0.092830,-0.193437,0.112810,-0.134782,-0.065050,0.020314,-0.093960,-0.015443,-0.027532,-0.115588,0.124249,-0.063971,0.029137,-0.175657,0.036467,-0.241518,-0.261450,0.018956,-0.018445,-0.028500,0.296635,-0.185456,-0.264663,-0.251310,-0.087125,-0.170363,0.110502,-0.143653,0.039699,0.033927,0.072265,0.232980,-0.120592,-0.164886,0.005931,-0.293902,0.024860,-0.069305,0.121128,-0.059364,0.175429,-0.163249,0.063429,-0.121852,-0.077887,0.032862,0.043656,0.064878,-0.145625,0.251996,0.146581,-0.108179,0.032958,-0.032371,0.053655,-0.134809,0.087754,0.079519,0.020256,0.157151,0.067122,-0.087315,0.076860,0.362256,0.061730,-0.118288,0.002339,-0.101785,0.022722,0.036927,-0.158977,0.174990,0.183259,0.131163,-0.240248,-0.006436,-0.322184,0.033969,0.125916,-0.119045,-0.001105,-0.228001,-0.007319,-0.106799,-0.151975,-0.160963,0.183482,-0.051098,-0.068769,0.204923,0.128098,0.473522,0.160677,-0.051390,0.138904,-0.049129,0.129050,0.101788,0.100734,0.135629,0.131669,-0.064216,-0.035845,0.164910,0.062731,0.085309,-0.167786,-0.011123,-0.046060,-0.007288,-0.443701,-0.036883,-0.182343,-0.090526,0.043826,-0.081007,-0.188888,-0.038785,-0.138204,0.136300,-0.082697,-0.133885,0.038333,-0.227003,-0.057189,0.057352,0.054486,0.172362,0.140072,0.086753,-0.009688,0.392191,-0.052840,-0.288246,0.080123,-0.007753,0.050709,-0.038727,-0.111251,0.067595,0.220634,0.011715,0.052476,-0.063595,0.008753,0.001402,-0.286337,-0.010851,-0.072819,0.007232,-0.135679,-0.449665,0.080044,0.035528,-0.043501,0.082549,0.052591,-0.166327,-0.069002,-0.028864,-0.009695,0.064379,0.075776,-0.120976,0.070913,0.152722,0.190760,-0.044409,0.073456,0.277022,0.068905,0.145808,0.329156,0.168705,0.270379,-0.119136,-0.038791,-0.303933,-0.247561,0.410680,-0.025122,0.170082,0.038737,-0.462457,0.082329,-0.122332,-0.048272,-0.270446,-0.273594,-0.080274,-0.035954,-0.372781,-0.043644,-0.394919,0.254913,0.073665,-0.277587,0.095479,0.209641,0.008599,0.071015,0.138957,0.133406,0.139538,0.120384,-0.167189,0.260066,0.102511,0.100574,-0.085665,0.021929,-0.190350,0.187923,0.230586,-0.029800,0.261869,0.002201,0.067066,0.017376,0.188782,0.097878,0.326450,0.022148,-0.151263,-0.160273,-0.098680,0.140025,-0.487440,-0.232468,-0.072556,0.461375,-0.264317,-0.402786,-0.260512,-0.001482,0.160078,-0.217590,0.249870,0.165975,-0.116874,-0.061565,-0.337205,0.147611,0.145028,-0.040373,0.008345,0.117307,0.153576,0.097526,0.086180,-0.012165,-0.018705,0.212009,0.358046,-0.134035,0.176870,0.104403,-0.037422,-0.073610,-0.064068,-0.137451,-0.293798,-0.077401,0.100108,0.210033,0.151373,0.062625,0.087101,0.191139,-0.052601,0.098706,0.164246,0.029151,0.231777,0.086988,0.320532,0.434490,0.061236,0.141147,0.314859,-0.060046,0.084187,
0.006575,0.163733,-0.338468,-0.196211,0.308673,-0.144584,-0.232427,0.106649,0.307426,-0.411633,-0.063924,0.193294,-0.673863,-0.105771,0.095627,0.288466,-0.161960,0.011437,0.515529,0.150541,-0.352352,0.173921,-0.333006,0.455625,0.036737,-0.224044,-0.174047,0.049172,0.381588,0.554340,-0.336866,0.160960,-0.792579,-0.364568,0.351947,-0.133140,0.309531,-0.369100,0.093215,0.265556,-0.482401,-0.010628,-0.320458,-0.287006,0.331951,-0.250760,-0.336467,-0.044204,0.079877,-0.132597,-0.201358,-0.347153,-0.297997,0.473314,-0.096482,0.500087,-0.277866,-0.719457,-0.564923,-0.121502,0.161104,-0.591244,-0.557740,0.368927,-0.253759,0.021656,0.286641,-0.792912,0.016156,-0.265574,0.123518,0.087443,0.058953,-0.376155,-0.100051,-0.082946,0.210054,0.065473,0.204936,-0.063252,-0.419511,-0.270794,-0.270504,-0.196750,-0.125929,-0.102632,-0.234834,0.477564,0.461565,0.082384,-0.472358,0.375682,-0.161552,0.626500,-0.511218,0.244881,
